-1.290536755604121052e-02
1.909516874006095787e-03
3.254055757627899491e-04
4.460973130245262513e-03
2.449603613247287870e-03
8.385175374367137904e-03
1.116359571314174369e-02
8.275329569009337582e-03
6.629338493837428660e-03
1.523956553152213712e-02
-2.585730197774786451e-02
-1.493866823700024798e-02
-1.096420765430941753e-02
-1.947117275864591879e-02
-1.142244315660258074e-02
5.366608245099570122e-03
2.891603060770957245e-03
9.929429508793378989e-03
4.165406051859388975e-02
6.168129565818569748e-02
1.614082892422573079e-01
4.854947160607726853e-02
8.298833420493505197e-02
2.796142585504305181e-02
2.586370934868217203e-02
3.486907645850679388e-02
1.821927910170524911e-01
4.428602345980133803e-01
-4.272757337347592166e-02
-6.840104264503476909e-03
-4.183840298197186863e-02
4.400354777510338822e-02
8.068843427982579086e-02
-1.849177895581487902e-02
2.173076984711123927e-02
3.827369226695376270e-02
1.346044952200748657e-01
-3.619853581408345039e-02
-5.746783764796504004e-03
1.910524182849700561e-02
-6.566779065686537825e-03
-6.314312266262489537e-02
-1.139576147752907088e-02
1.978102063802701649e-02
-8.932486966991377841e-02
-9.248763306208228341e-02
-1.626583995218668435e-02
-1.420150212922068663e-03
8.800301406501453982e-03
7.030302085632999382e-03
-4.589126552542055308e-03
-2.264990071552772447e-02
-7.048265147306404660e-03
3.302408764835768756e-02
1.061022862050499255e-01
-1.731215307728615344e-02
-1.104328213423158610e-03
1.243831410899692326e-02
1.592340315850464955e-02
-4.954265273947369361e-03
-1.960645540401816794e-02
-4.161063330689464962e-03
2.117282872446562061e-02
7.736687046891070618e-02
1.550304729968919604e-02
-1.095769253241657415e-02
-1.411062056238662071e-02
-1.600315863119636597e-02
-1.113590618898436385e-02
-5.373312580482064206e-03
-3.320791739993819019e-02
1.660972995632554322e-02
1.092230991273401702e-01
-4.322395814934435615e-03
-5.823599032948506386e-03
-3.962025213874333270e-03
1.494441259552717859e-02
1.081614077286387546e-02
-1.271876288953453261e-02
-1.175932169560275735e-02
1.938166963874281626e-02
5.459649523851804742e-02
2.522702042354539251e-02
-1.091608892941693014e-03
2.876565947249300897e-02
-3.151976083505256959e-02
3.554689758158432328e-02
9.213430824148384490e-02
-1.591457827416390691e-01
1.329201419752346069e-01
6.291133879600100398e-01
-5.877324199971013102e-02
-9.725933450882004450e-02
-7.946272820184892283e-02
5.879176575023792317e-02
-7.519216046677811016e-02
5.343987929526853448e-02
1.240858156911679461e-03
-1.525089035983852870e-01
-2.155681076364129589e-01
-6.288899465355348361e-04
-2.506095386187627734e-03
-6.447301079881458119e-03
-1.158105593987176184e-02
-8.391422552390901193e-03
-3.969914561181345919e-03
-5.272850590391567165e-03
-2.181245541619561759e-03
5.766790688666126883e-04
-4.397998199574193467e-02
6.888496113398301368e-02
-1.171485240430541336e-02
-1.901354264645396808e-02
-8.134576862730736810e-03
8.834316577653164929e-03
-1.396170418777912398e-02
5.817524989854124667e-02
1.854113860110350454e-01
-2.258184582797372747e-02
-2.043985598613366414e-02
-1.827480908457083247e-02
-2.251109094016389561e-02
-3.074364657979244443e-03
8.844521072705646345e-03
3.668760071698052953e-03
1.825388789806204216e-03
4.029935192136793048e-02
-7.768327834908610348e-03
1.318183153380101530e-02
4.602016901447594094e-03
-5.124636562996096913e-03
-9.176949140520787931e-03
3.569339828335642631e-03
2.917634851067126174e-03
-2.978066863165680991e-03
5.188302923487530041e-03
2.196995331710601893e-03
-7.177795704663918197e-03
4.195827653625317129e-03
-1.111986641723833715e-03
4.937862623298643928e-03
-3.162749102082875428e-03
1.047817295603170606e-02
9.652623396899040475e-03
1.187320323340039854e-02
-3.411761932192136637e-02
-4.039149667298182894e-02
1.884818982163137882e-02
-1.607718731695318565e-02
-1.727672356566218800e-02
-3.767548855107266670e-02
-3.696509431743164736e-02
-5.905354058820132951e-02
-5.993895587998270685e-02
-7.477655676574299776e-03
1.020560515147965475e-02
5.351809122670433613e-03
1.734011243861011175e-03
1.011010117086415250e-02
2.578203063866150654e-02
-4.704432251119947811e-02
-9.927165501162374395e-02
-4.771665034669474170e-02
1.163933406880022755e-03
-3.716145558102345713e-03
2.560915860230695684e-03
-3.279573051288650880e-03
2.801361762033295014e-03
3.593362966748751049e-03
-5.387948597485897606e-03
-1.069962487365188480e-02
1.053629534829616729e-02
-3.201077138185243198e-02
-1.594738773774309268e-02
-7.747921118464921528e-03
-1.675971090003736466e-02
-5.790706961333225329e-03
9.884192103314511438e-03
9.718297155300243892e-03
3.229406782423914490e-02
8.243723963965353396e-02
-3.693235469037804697e-02
-1.100730421610798399e-01
2.796585094018364318e-02
-5.072464745820417370e-02
9.381085525120597124e-02
-2.087083250820643415e-02
-5.716987435976264575e-02
-1.045459026292496797e-02
2.217536773173787307e-02
6.813548391747599464e-02
-5.812428048018086074e-02
-2.549509867211959824e-01
2.537677913898090942e-01
4.228246665420760109e-01
-1.721656966862578630e-01
-6.849827167003505468e-02
-2.958763782611498749e-01
-1.670616437757164729e-01
9.292275437985818634e-03
5.006882435453374356e-04
1.142859378194644934e-02
-2.461847561913804369e-02
1.626209806420846754e-02
-1.057762274377504162e-02
-1.119082318730565268e-02
-1.011070163978449940e-02
1.629910215204906365e-02
4.570382180932213226e-03
-1.807549325705369234e-03
1.945294574655401579e-03
-1.093251854427098810e-02
5.718841809309468081e-03
-1.518978611907470262e-03
-5.598298627964450221e-03
-1.111925813163910752e-02
8.488760088104599713e-03
-2.000349644591266005e-03
3.504838192318033110e-05
-2.616280507187831138e-03
7.000271015740074793e-03
-3.860546614938958551e-03
2.256475586034668249e-03
3.279755136308769043e-03
6.651562825258285939e-03
-4.730429040233052537e-03
-1.573987026965438562e-04
1.398342836992312653e-04
6.217958895338970816e-05
-1.300719301998886177e-05
4.728427107188783998e-05
-1.425921103250905137e-04
1.209457072555540099e-04
-1.119300420539648373e-04
-2.577068755738759509e-04
8.471860360800991300e-05
2.312220791972528712e-05
1.511896507841552319e-05
1.222816333814013266e-04
-4.000641367216966238e-04
7.111859261289474321e-05
3.610094658456994982e-04
-4.155749315649116251e-04
3.719430873489492539e-05
-8.496094342767399792e-04
1.977542643324370060e-04
1.560132764050094992e-03
-1.915616117797114054e-03
-1.140714790806080696e-04
3.898027290378691233e-03
-4.664322164086139033e-03
-8.239414618554918033e-04
3.694957730017344334e-03
1.860467799659840061e-03
1.754548996179554950e-03
7.192559753175200221e-04
-1.150000924933921751e-03
7.044230633670940439e-04
5.909716283394783522e-04
8.277446204542040142e-04
2.332782310627554319e-03
3.160970423555096304e-03
1.629701763350076239e-04
-3.933789801342060289e-05
1.097960187311795751e-04
-2.285981897969818104e-04
-9.804347207672812797e-05
6.147418130189865812e-04
-7.375969072029867546e-04
-2.509179970865241011e-04
5.135746056487264146e-04
-1.214737987574389735e-02
1.319930387124301080e-02
-7.883695202157534228e-04
-1.089884392541945511e-03
-4.735244394662764707e-03
-1.779233774682116868e-04
-3.264766344093636505e-03
2.171613279404433806e-03
-7.750042173699837021e-03
-2.895609408830116666e-02
-2.780980697953892855e-02
-1.990623907423265046e-02
-1.504627760268162709e-02
1.324597285253284809e-02
1.505066499816953840e-02
8.530347121420523565e-03
1.072626911281414526e-02
7.628020539403340683e-02
1.965498195577970118e-05
-2.609793820371382285e-05
-1.341708511461336942e-05
1.940229681182495345e-05
2.705383915616888589e-05
-4.948072606526954496e-06
-1.384109812523803426e-05
1.277277666482730213e-05
-1.156798148460127247e-05
-1.185096259426420414e-05
1.753219235981749813e-05
-9.176778280448476784e-06
-2.983670433142111076e-06
-1.268474904089443703e-05
8.209610292502261518e-06
-2.935300631799269038e-05
-3.194358101742678633e-05
-3.225027814062767439e-05
-2.204480037978188631e-02
2.555560556256336255e-02
3.636015430605513826e-02
1.595385798193192303e-02
-2.033683382536871295e-02
4.833551901851865056e-03
1.125223725909866093e-02
6.057798431940823042e-03
-1.265291861595466485e-02
-1.578764486430124341e-03
9.924696507297733547e-03
-4.963348933653303346e-02
-4.631783176706826682e-02
-1.318476025977267756e-02
5.232412501595752607e-02
-1.127208508955963341e-02
-4.512619363890826157e-02
2.472804893495714543e-02
