-4.108860435790454568e-01
3.768337175689713270e-01
5.044566177983245830e-02
8.918088575865723566e-01
2.354033677962788396e+00
2.911933854106195652e-01
3.961806690866990222e-01
3.058261479670076333e-01
-3.871560633982747412e-01
-1.110047810946901414e+01
-2.017529722594417763e-01
-2.268605762391844721e-02
-6.985409173479720790e-01
-5.164235427970357284e-01
-1.303510202357000125e+01
-6.574508330938799716e-01
-1.424182345855548482e+00
-1.336882378586455866e+00
-9.282099562712843310e-01
-1.960884032812658440e+00
-1.665425290903348676e+00
-1.905622251477498308e+00
-1.618601660414184407e+00
-7.117909300802799377e-02
-5.507519462468043331e-02
5.359607978682612295e-01
1.602399173783190411e+00
-6.006571365150512598e-01
8.934180297091598444e-01
-2.010650174791785361e+01
1.404097137772167825e+00
-2.503169415742648174e-01
-1.252898969357000514e+00
1.454677885506378887e+00
9.699047701643268571e-01
-1.262837281373202947e+00
-1.736949012663114189e+00
-1.386188428817749063e+00
-1.124395225816032351e+00
-4.335574073777241910e-01
-1.609779616744549058e+00
-3.628168111927698170e-01
3.623126680949163569e-01
-1.441940704940889217e+00
-1.120302643597691272e+00
-7.201519845548423060e-01
-1.266198001103089554e+00
-4.621865004492360818e+00
8.702911518814951397e-02
1.490946319040163670e-01
-1.496010796158596112e-01
2.291640427040491645e-01
-5.469010556687924351e-01
-6.898381419231807143e-01
-9.378860383383906540e-02
4.705230489692702744e-01
-4.732822716615898706e-01
-7.603056165078720952e-01
3.434989815061581520e-01
1.277499215801335630e+00
-9.442924206788134711e-01
-2.708200243314457523e-01
-5.443120554350433515e-01
-7.662208562988926941e-01
-3.643142039714739600e-01
7.693886406352344887e-01
-2.052136095851422037e-01
-1.240092212754366097e+00
-2.676184889290850411e+00
-1.887230908758930348e-01
-2.384274974086511012e+00
-8.210209048214569538e-01
-1.152735142631124310e+00
-2.262327418272061796e-01
5.355799909224116806e-02
-1.012016712951873953e-01
-1.534866543040042108e+00
-7.862234689393379217e-01
-5.890792306167887959e-01
-1.104867631591282517e+01
-1.792057572123444631e+00
-6.402281900000319492e-01
-6.551624260224581109e-01
-9.184958054152551066e-01
-4.920632276049448084e-01
2.415614380520104965e-03
2.794939042161957987e-01
-4.960144304734913634e-01
-1.412455877493037915e-01
-1.150348476332591297e+00
-1.089437084181606563e+00
-1.348430976280015514e+00
-1.262785431670698344e+01
-1.380013944725646535e+00
-1.107910003149493311e-01
-5.429890040377610694e-01
-5.695828322222169504e-01
-8.765018365005540213e-01
-5.337726972568176409e-01
-1.620425215682302467e+00
-4.989413801598090448e-01
-1.111663818417063521e+00
-9.279875933936050370e-01
-3.412599617710618261e-01
-1.699126827291762121e+00
1.548043252782241863e-01
-7.279787888523204797e-01
